digraph Tree {
node [shape=box] ;
0 [label="age <= 35.838\nentropy = 1.0\nsamples = 100.0%\nvalue = [0.502, 0.498]\nclass = fail"] ;
1 [label="age <= 35.546\nentropy = 0.897\nsamples = 10.2%\nvalue = [0.314, 0.686]\nclass = success"] ;
0 -> 1 [labeldistance=2.5, labelangle=45, headlabel="True"] ;
2 [label="age <= 35.13\nentropy = 0.939\nsamples = 9.0%\nvalue = [0.356, 0.644]\nclass = success"] ;
1 -> 2 ;
3 [label="years_customer <= 3.243\nentropy = 0.872\nsamples = 8.2%\nvalue = [0.293, 0.707]\nclass = success"] ;
2 -> 3 ;
4 [label="entropy = 0.963\nsamples = 6.2%\nvalue = [0.387, 0.613]\nclass = success"] ;
3 -> 4 ;
5 [label="entropy = 0.0\nsamples = 2.0%\nvalue = [0.0, 1.0]\nclass = success"] ;
3 -> 5 ;
6 [label="entropy = 0.0\nsamples = 0.8%\nvalue = [1.0, 0.0]\nclass = fail"] ;
2 -> 6 ;
7 [label="entropy = 0.0\nsamples = 1.2%\nvalue = [0.0, 1.0]\nclass = success"] ;
1 -> 7 ;
8 [label="age <= 47.077\nentropy = 0.998\nsamples = 89.8%\nvalue = [0.523, 0.477]\nclass = fail"] ;
0 -> 8 [labeldistance=2.5, labelangle=-45, headlabel="False"] ;
9 [label="age <= 46.646\nentropy = 0.981\nsamples = 43.0%\nvalue = [0.581, 0.419]\nclass = fail"] ;
8 -> 9 ;
10 [label="age <= 46.443\nentropy = 0.984\nsamples = 42.2%\nvalue = [0.573, 0.427]\nclass = fail"] ;
9 -> 10 ;
11 [label="entropy = 0.982\nsamples = 41.8%\nvalue = [0.579, 0.421]\nclass = fail"] ;
10 -> 11 ;
12 [label="entropy = 0.0\nsamples = 0.4%\nvalue = [0.0, 1.0]\nclass = success"] ;
10 -> 12 ;
13 [label="entropy = 0.0\nsamples = 0.8%\nvalue = [1.0, 0.0]\nclass = fail"] ;
9 -> 13 ;
14 [label="years_customer <= 3.848\nentropy = 0.997\nsamples = 46.8%\nvalue = [0.47, 0.53]\nclass = success"] ;
8 -> 14 ;
15 [label="age <= 74.723\nentropy = 0.999\nsamples = 45.0%\nvalue = [0.484, 0.516]\nclass = success"] ;
14 -> 15 ;
16 [label="entropy = 0.996\nsamples = 41.6%\nvalue = [0.462, 0.538]\nclass = success"] ;
15 -> 16 ;
17 [label="entropy = 0.787\nsamples = 3.4%\nvalue = [0.765, 0.235]\nclass = fail"] ;
15 -> 17 ;
18 [label="years_customer <= 4.172\nentropy = 0.503\nsamples = 1.8%\nvalue = [0.111, 0.889]\nclass = success"] ;
14 -> 18 ;
19 [label="entropy = 0.0\nsamples = 1.4%\nvalue = [0.0, 1.0]\nclass = success"] ;
18 -> 19 ;
20 [label="entropy = 1.0\nsamples = 0.4%\nvalue = [0.5, 0.5]\nclass = fail"] ;
18 -> 20 ;
}